svm_type c_svc
kernel_type rbf
gamma 0.166667
nr_class 2
total_sv 226
rho -0.976288
label 1 -1
nr_sv 190 36
SV
0.4756310743498099 1:-6.164736 2:-0.012825012 3:5.274423 4:-4.9317884 5:-0.01026001 6:4.2195387 
0.07948687314629248 1:-2.0083866 2:0.22331047 3:3.0199156 4:-0.62035155 5:0.18070038 6:1.5720248 
1 1:-1.6334219 2:0.20220041 3:0.7895136 4:-0.35567808 5:0.5961293 6:-0.21753347 
0.7818918845127151 1:1.6546693 2:-0.9324713 3:4.164174 4:2.3459306 5:-0.43083388 6:2.5257015 
0.01021044546967587 1:-0.9856616 2:4.175086 3:2.9626327 4:-0.32821715 5:4.4136477 6:2.1101274 
0.1767737130242085 1:0.28825486 2:-0.70723104 3:6.618691 4:0.7679764 5:-0.2205314 6:5.402301 
0.779594479162486 1:-1.8123474 2:-0.8264003 3:-0.96808577 4:-1.0661007 5:-0.27176052 6:-1.7475806 
0.3146109812262074 1:-1.9980786 2:-1.4850025 3:3.7144146 4:-1.0014656 5:-0.74429023 6:2.347936 
0.01616471659969246 1:3.8603742 2:-1.1138744 3:7.8349924 4:3.7145383 5:-0.7071311 6:6.45372 
1 1:-0.8979058 2:-1.3601604 3:0.39376307 4:-0.83499336 5:-0.7627336 6:-0.7900076 
0.08304392717905136 1:0.8850175 2:-1.551341 3:0.083417416 4:0.75834405 5:-0.76313144 6:-0.8802826 
0.01005511660140328 1:-0.77992606 2:-0.12560034 3:-1.3879876 4:-0.6837806 5:0.25895724 6:-2.2612114 
0.1096849941133413 1:-0.10429704 2:-1.5571504 3:-0.72158146 4:0.022036508 5:-0.86380607 6:-1.0549463 
1 1:-1.0948045 2:0.28216267 3:-1.4087126 4:-0.8730253 5:0.5003476 6:-1.8053298 
1 1:0.1861735 2:0.2871189 3:1.7797685 4:0.3263622 5:0.4042431 6:1.106521 
1 1:-0.5492711 2:-0.88785505 3:0.028451443 4:-0.32726595 5:-0.61658466 6:-0.51583683 
1 1:-1.1142809 2:0.92977095 3:-0.04672432 4:-0.71382064 5:0.9608331 6:-0.47281006 
0.1127484510277766 1:1.8309326 2:-0.9480829 3:0.62619305 4:1.7851144 5:-0.73361665 6:0.16008586 
1 1:-1.1429806 2:0.10278177 3:-0.54247713 4:-0.79520595 5:0.43354043 6:-0.38637832 
1 1:1.803751 2:-0.4843645 3:-0.19407654 4:1.7212205 5:-0.12288469 6:-0.030382186 
0.9577684487178602 1:-1.2795138 2:0.76528215 3:-0.081361294 4:-1.0896355 5:0.90140957 6:0.065866455 
1 1:1.0873983 2:-0.77310324 3:-0.17202187 4:1.330612 5:-0.75615317 6:0.12379676 
1 1:-0.02202797 2:-0.60229206 3:0.20592308 4:0.4029943 5:-0.4621608 6:0.30167913 
1 1:1.0863467 2:-0.3825178 3:0.95522356 4:1.0281563 5:-0.022250772 6:1.1059921 
1 1:-0.13900304 2:0.26107597 3:-0.8513427 4:-0.15775476 5:0.49707443 6:-0.5604593 
0.01527798208537838 1:1.688456 2:0.7799139 3:1.5610614 4:1.5534878 5:0.70240045 6:1.7538589 
1 1:0.63892007 2:-0.5898776 3:-0.4119873 4:0.40316144 5:-0.5339129 6:-0.1753518 
1 1:0.7019424 2:1.3592939 3:0.42569685 4:0.39113376 5:1.1783019 6:0.53895116 
1 1:-0.56252915 2:0.25880194 3:1.2130718 4:-0.4538018 5:-0.04240486 6:1.2561622 
1 1:-0.25338018 2:-0.14875412 3:-2.07515 4:-0.11572227 5:-0.35996872 6:-1.6256478 
1 1:-0.6372881 2:-0.4210148 3:0.78509045 4:-0.42728612 5:-0.10966086 6:0.48927096 
0.1286716327427592 1:-1.6787038 2:-0.2215476 3:-2.1246948 4:-1.1749614 5:0.071845055 6:-1.9364115 
1 1:0.57038313 2:-0.37345743 3:1.5380888 4:0.8593004 5:-0.06405181 6:1.3810978 
0.1035534408843499 1:-0.385505 2:-0.5846658 3:1.9475875 4:-0.07727018 5:-0.22020814 6:1.4324771 
0.1477098156478978 1:1.9201576 2:0.5149102 3:1.7414012 4:1.7962474 5:0.6514052 6:1.7426203 
0.5330334691984363 1:0.7751616 2:-0.12800694 3:4.765374 4:0.4902653 5:0.04181786 6:3.5062542 
0.1326203817606225 1:0.48076233 2:-0.54382324 3:-2.1223583 4:0.53549266 5:-0.27987745 6:-2.0313115 
1 1:-0.35507178 2:1.2596388 3:-1.024642 4:-0.24027316 5:1.2188677 6:-0.7468761 
0.01296822688128462 1:2.2569427 2:-3.6860743 3:3.389453 4:1.9777396 5:-2.352554 6:2.3283672 
0.06474932036200311 1:1.3622603 2:-3.4459724 3:7.2702117 4:0.8664457 5:-1.6899618 6:4.967301 
0.035127270732791 1:1.5197436 2:1.4524741 3:1.2223558 4:0.8191432 5:2.5667877 6:-0.864444 
1 1:0.019484103 2:0.24496794 3:0.23869038 4:-0.544893 5:1.0874254 6:-1.4784876 
0.04634602313190458 1:-1.1531352 2:-2.0606961 3:-4.227558 4:-1.3740098 5:-0.974591 6:-4.755789 
0.02325533175903341 1:14.851158 2:-0.11485052 3:-3.0529122 4:11.729498 5:0.8336973 6:-3.0511787 
0.02203940025450489 1:6.654947 2:-11.266758 3:-2.2592845 4:2.8266296 5:-8.254568 6:-1.8060408 
0.02391705357696761 1:-7.316866 2:-10.645546 3:1.7658765 4:-8.916146 5:-6.1066847 6:1.7752962 
0.00915384758602354 1:-9.862808 2:-2.4224129 3:0.08780575 4:-9.169671 5:1.6931586 6:0.07778034 
0.02248642024147883 1:-4.572598 2:-2.2949247 3:-3.0402682 4:-2.9967594 5:1.2207167 6:-2.0905461 
0.02283500764456736 1:-5.666734 2:3.6771593 3:-7.122682 4:-3.2727165 5:5.7542405 6:-4.9383683 
0.00577178281102747 1:0.6135386 2:1.847619 3:4.2286296 4:2.406045 5:3.1397603 6:5.130355 
0.01884031182083343 1:0.025529861 2:10.374674 3:-6.637358 4:1.454429 5:9.333452 6:-4.5885067 
0.01003614549002146 1:-1.2495925 2:-4.426265 3:-0.2664451 4:0.012144804 5:-4.5572743 6:1.492532 
0.0132574035428328 1:-0.011191606 2:4.969297 3:-4.663848 4:-0.26670793 5:3.4197602 6:-2.9912052 
0.02306866832494576 1:-2.3038266 2:8.142979 3:4.0153446 4:-2.0474744 5:5.2747536 6:4.55039 
0.02245452877681854 1:-4.4099874 2:8.485318 3:-4.648486 4:-3.3229082 5:4.4936743 6:-3.290753 
0.08648260114888305 1:2.4053018 2:3.1528058 3:-0.05150286 4:2.7939048 5:-0.6710706 6:1.0449845 
0.02116753700812436 1:4.1089516 2:-3.6879187 3:5.9177265 4:3.598044 5:-6.009436 6:5.611371 
0.02424182382743993 1:-5.538496 2:6.662875 3:2.5676394 4:-4.868388 5:3.9386868 6:2.2212758 
0.04791783832193878 1:-6.2015557 2:-1.9151707 3:1.4179059 4:-4.4251585 5:-3.7114873 6:0.8572339 
0.01757416539903868 1:1.1091391 2:-0.5823517 3:-5.7622375 4:2.3084292 5:-1.9029346 6:-5.0583277 
0.8227937626403478 1:2.614516 2:0.71506786 3:-1.5703944 4:3.0510452 5:-0.48441207 6:-0.69318765 
0.139376461133524 1:-1.0954435 2:1.329464 3:-5.2137856 4:-0.5271315 5:0.10398722 6:-3.469263 
0.01675588097435798 1:8.145847 2:-1.373579 3:-0.17209828 4:6.971328 5:-2.0792446 6:1.2579393 
0.01819596525034078 1:2.6872149 2:10.114756 3:-7.639585 4:1.3820889 5:8.01061 6:-4.8857646 
0.01076831715290241 1:3.3397703 2:-3.0797787 3:5.085594 4:1.6277156 5:-4.1471395 6:6.2715316 
0.01973646212547735 1:-5.3865595 2:4.16439 3:-3.8872247 4:-5.678891 5:2.4776232 6:-2.1610298 
0.01743462718004236 1:5.8891177 2:-6.6087112 3:-0.092791274 4:4.477429 5:-6.6363826 6:1.3067229 
0.01227688652867457 1:-1.4786313 2:-0.20467186 3:-6.9610224 4:-2.54354 5:-0.41337386 6:-3.970871 
0.02360282723854412 1:7.0169287 2:-11.790173 3:8.103276 4:4.7616158 5:-9.5991 6:8.8747425 
0.005734270671656015 1:4.9006634 2:-7.151334 3:-1.7854712 4:2.1162806 5:-3.968209 6:-0.81120425 
0.2272759887881704 1:-0.25582218 2:-0.5745716 3:-0.47696117 4:-1.9325526 5:1.7760751 6:0.81436634 
0.004515474829456119 1:0.68694055 2:1.8816385 3:-6.926237 4:-0.79183185 5:3.3858283 6:-4.507928 
0.01367974562086756 1:1.5647812 2:4.33451 3:-4.5565963 4:0.068807006 5:4.67096 6:-1.7106297 
0.0231560085805223 1:3.3509765 2:-9.516641 3:7.351813 4:1.4840019 5:-7.3441525 6:8.158224 
0.02267891393343621 1:-4.0252857 2:7.0735393 3:-2.7552893 4:-4.7138085 5:7.396822 6:-1.5591028 
0.002884461344954297 1:7.2169876 2:-6.7223988 3:-0.98891664 4:5.222772 5:-5.119293 6:0.16581595 
0.02020457289377586 1:-8.416978 2:-8.046354 3:-4.024742 4:-8.704602 5:-6.048043 6:-1.9392414 
0.007690866384453115 1:6.786072 2:-7.150859 3:-2.6940513 4:5.198758 5:-4.122038 6:-0.4868405 
0.01322233689482784 1:-0.880702 2:8.107338 3:-6.4396954 4:-1.9744127 5:8.908927 6:-3.3859878 
0.01359216830139957 1:6.1683693 2:-7.3976 3:2.0607443 4:4.0597267 5:-5.2768087 6:4.091562 
0.0162608783135545 1:-2.030344 2:9.225407 3:-6.464797 4:-3.3111892 5:9.076959 6:-3.5471835 
0.06954003989078532 1:-6.271865 2:-4.8513107 3:3.5788302 4:-6.147791 5:-4.688074 6:5.0939884 
0.01942671815894936 1:-8.314279 2:-8.268919 3:-2.159634 4:-6.552164 5:-6.484546 6:-0.51558065 
0.01397190978228522 1:2.9301589 2:0.911211 3:-6.4151325 4:3.753819 5:2.156467 6:-3.8168633 
0.01756705367537408 1:-8.668742 2:-6.734066 3:0.2201193 4:-6.276066 5:-4.391048 6:2.254711 
0.02395424171551208 1:0.72273135 2:-7.108862 3:9.994026 4:2.4923263 5:-3.8126752 6:9.622894 
0.2861732851671294 1:1.7118328 2:-2.3242025 3:-1.1260711 4:2.785142 5:0.7775872 6:-1.1977624 
0.02374544015796121 1:7.2936516 2:3.6250887 3:2.3290858 4:6.289895 5:4.852646 6:1.2804524 
0.02798127218431872 1:-0.98306775 2:-1.977191 3:-5.7866883 4:-1.5894594 5:-0.599707 6:-5.4682574 
0.01069145285990465 1:7.2316575 2:-7.1246386 3:3.2494173 4:5.300213 5:-4.597724 6:2.8542786 
0.4194465204563707 1:1.2767981 2:-1.729435 3:0.04978484 4:-0.5237174 5:0.6379838 6:-0.27628317 
0.01800739831645574 1:3.3961678 2:0.2569456 3:8.523326 4:1.2765219 5:2.0994916 6:6.5578065 
0.01732292214417571 1:6.947979 2:-7.8548 3:-2.099601 4:3.6763391 5:-5.4867926 6:-2.820792 
0.02220953217167738 1:-5.4319534 2:-3.9783669 3:-4.4834843 4:-6.549838 5:-1.3929138 6:-4.001916 
0.01853524833215068 1:5.8741493 2:-3.1352968 3:5.7455187 4:3.8050117 5:-0.43987513 6:4.9816694 
0.01761586781516713 1:3.9744344 2:4.158583 3:-4.178344 4:2.12148 5:5.230097 6:-3.806735 
0.01796807035151283 1:2.0529194 2:2.6186657 3:-7.5045676 4:0.15997195 5:2.9521437 6:-5.7063675 
0.001010854618654802 1:6.2053995 2:-6.2441444 3:2.9213703 4:3.4499617 5:-4.7285333 6:3.7756567 
0.01077191932471205 1:4.1577883 2:-7.090851 3:0.33063912 4:1.3204713 5:-4.7462015 6:-0.33486593 
0.02016995458702317 1:-0.3853805 2:2.7664766 3:-7.2958884 4:-2.578158 5:4.088901 6:-6.369115 
0.01583110568637309 1:2.691299 2:6.8941913 3:-7.918186 4:0.3988173 5:6.5732927 6:-5.59313 
0.01611316790346229 1:3.1110868 2:-8.287287 3:-2.025624 4:0.6548841 5:-6.8865485 6:0.23954558 
0.01361235140879827 1:2.672473 2:-7.1999397 3:-2.5624921 4:0.009159803 5:-4.9282503 6:-0.33354926 
0.01594068973746184 1:1.7771306 2:6.5427523 3:-6.9628096 4:-0.708946 5:7.0515537 6:-3.7870934 
0.02402135764861379 1:-16.557 2:-6.368766 3:-7.5661955 4:-15.346631 5:-4.8060083 6:-3.6589599 
0.02296380839581389 1:4.0486565 2:5.1267037 3:-8.592226 4:4.20722 5:5.351569 6:-3.7479925 
0.02591816011827891 1:-3.6820712 2:-4.54827 3:1.245165 4:-2.8188062 5:-3.458724 6:4.871519 
0.01968706564285967 1:-3.8941476 2:-4.2147913 3:-5.2891817 4:-2.4247062 5:-2.5001962 6:-1.3302622 
0.02150842174077524 1:5.0457926 2:-1.3029613 3:7.597763 4:5.2121873 5:0.32930696 6:9.245346 
0.0376488009977846 1:-2.7382207 2:-1.7846498 3:1.6335262 4:-3.5258427 5:-1.070929 6:2.0634856 
0.7221246220071188 1:-2.7847147 2:0.7271023 3:-4.537069 4:-2.8578694 5:1.1526585 6:-3.2856874 
0.02350089279749487 1:2.164763 2:-0.15027332 3:11.464053 4:1.6732867 5:0.22022635 6:10.172348 
0.00322144038021405 1:-7.4907675 2:-2.6224413 3:1.0641681 4:-6.385795 5:-1.8015534 6:-0.18202984 
0.02198449096636844 1:-1.9998293 2:-5.7250624 3:-4.827471 4:-0.71588564 5:-3.9233396 6:-4.858935 
0.02316837848590654 1:-1.7116523 2:-8.889579 3:4.1139765 4:-0.3421669 5:-5.6702847 6:3.2660098 
0.01625439194299855 1:-11.981019 2:-2.75465 3:1.3988183 4:-8.489227 5:0.3717153 6:0.44068128 
0.02278340510652104 1:-4.9179864 2:8.849157 3:-6.4013705 4:-1.1409552 5:9.580419 6:-5.887606 
0.02304025854416915 1:1.4542052 2:-0.61146355 3:-9.204389 4:4.184989 5:0.09583795 6:-6.9524994 
0.01559223058820425 1:2.6759288 2:2.062869 3:2.4355617 4:3.2821674 5:1.8348441 6:3.7728665 
0.2268194910536526 1:2.0877333 2:-0.347291 3:1.4664712 4:2.1551776 5:-0.46025273 6:2.243021 
0.02404120093437667 1:17.769627 2:-6.62001 3:-7.1707044 4:14.269657 5:-5.3863773 6:-5.115324 
0.02373646871294961 1:3.1669936 2:-4.7280216 3:-11.236223 4:-0.2663808 5:-2.7955112 6:-7.344674 
0.02325141777254363 1:5.9419336 2:-7.777496 3:-7.3567767 4:2.0068474 5:-4.675988 6:-2.772182 
0.02076369279085605 1:4.8011055 2:-6.1899805 3:-4.1735635 4:0.6928153 5:-2.4707785 6:0.328825 
0.01365734728967893 1:-2.56566 2:-2.9420834 3:-0.09975195 4:-5.3391604 5:0.6216948 6:3.5221093 
0.01443451399056688 1:-7.591549 2:-1.6796994 3:-3.6751175 4:-8.29204 5:1.507263 6:-0.042604923 
0.0229495960183412 1:8.658951 2:1.5237446 3:-1.9219081 4:6.560466 5:3.6901221 6:0.56262136 
0.0136267292650021 1:5.0967493 2:3.3649154 3:-3.154695 4:2.3986115 5:4.4250345 6:-0.5361326 
0.01640416575544875 1:1.7560968 2:-3.2531915 3:4.124221 4:-0.9813216 5:-2.3522606 6:4.95222 
0.03689561526258773 1:-4.7478657 2:-5.096895 3:2.1968594 4:-5.9882274 5:-3.3567715 6:2.4198868 
0.01252128227115939 1:7.611964 2:-5.857945 3:-2.8144364 4:5.9083796 5:-3.4390903 6:-2.233615 
0.002926149949323538 1:7.3509903 2:-0.47851133 3:-3.7151291 4:4.517925 5:1.5522747 6:-2.507446 
0.043172347155539 1:4.3106594 2:-3.1036901 3:3.3503027 4:1.1133199 5:-1.517858 6:3.8705401 
0.01653089751951193 1:-8.938578 2:-1.6242805 3:2.013742 4:-9.708734 5:-0.030758739 6:2.0271835 
0.01183543388391902 1:10.013389 2:-5.9171357 3:-0.6865119 4:8.04552 5:-2.1401653 6:-0.80856967 
0.01822089264292323 1:8.518118 2:-0.4135766 3:-6.1715393 4:5.2401996 5:2.690715 6:-5.034878 
0.01357382912170606 1:4.670715 2:1.433177 3:-5.528679 4:0.69311523 5:2.930665 6:-2.8761883 
0.01920952688977782 1:2.4273143 2:-6.201715 3:3.6940508 4:-1.2323163 5:-3.7165155 6:4.6505523 
0.01212619890247259 1:-11.309372 2:-2.0741048 3:0.61256206 4:-11.092465 5:0.36435437 6:1.0171777 
0.01882262473788451 1:2.9335995 2:-5.928926 3:0.71743035 4:2.5697746 5:-2.5695133 6:0.48016733 
0.0169023266843687 1:9.193134 2:-7.4790235 3:0.84064496 4:7.0634475 5:-3.2956886 6:0.48270553 
0.01331439149724917 1:5.5296483 2:1.5408273 3:-1.6501393 4:2.7199693 5:4.57933 6:-1.606463 
0.18257691098705 1:2.3256764 2:0.17338753 3:-1.0083921 4:-1.0031538 5:1.8810104 6:-0.1274172 
0.03613368908636642 1:4.470441 2:-1.1845126 3:-2.6899757 4:1.0757298 5:-0.06558132 6:-0.73315144 
0.003999351608945847 1:7.50511 2:-6.195964 3:-0.32177258 4:3.288319 5:-4.061626 6:1.3080415 
0.00418389480298248 1:-9.757096 2:-1.77918 3:0.26945043 4:-11.040571 5:0.64051485 6:1.1547618 
0.05926087811978137 1:-6.6266794 2:-4.7774158 3:1.9107339 4:-6.328124 5:-1.8861766 6:2.2368364 
0.02175542817008212 1:7.24464 2:-2.0950432 3:-1.4727037 4:4.6473255 5:1.1095953 6:-1.6158003 
0.005275040638117778 1:8.681742 2:-0.8523483 3:-5.0022783 4:4.867542 5:1.8818324 6:-4.1163 
0.01592567996272536 1:6.8740525 2:2.3554533 3:-5.081729 4:2.4478822 5:4.0717072 6:-3.3566005 
0.01932014757692296 1:10.884279 2:-4.4253535 3:-1.0441797 4:5.6722193 5:-3.0821424 6:1.4188833 
0.008033383914191746 1:6.249162 2:-3.965302 3:1.8436824 4:0.8296819 5:-2.0976727 6:3.4453964 
0.01472883509134264 1:6.9561796 2:-7.7741785 3:-0.33012176 4:1.2293596 5:-4.7252398 6:1.0172737 
0.01909363689219773 1:9.061987 2:-5.666974 3:-1.876076 4:2.6681337 5:-2.094428 6:-0.42294443 
0.02088973959865168 1:6.7421803 2:-8.26632 3:2.492581 4:0.27866173 5:-3.7550197 6:3.15657 
0.01849522961233563 1:-6.9631248 2:-0.8073611 3:-1.3512759 4:-10.123652 5:2.703658 6:-0.90645176 
0.01667633667085634 1:-4.5672784 2:-3.844832 3:1.468026 4:-6.182245 5:-0.26705027 6:1.5302802 
0.008015033684588705 1:7.09104 2:-6.0789714 3:0.8038275 4:4.8951054 5:-2.1792307 6:0.2962836 
0.004544184749934574 1:9.736406 2:-5.98551 3:-1.4093542 4:6.0323772 5:-1.6686153 6:-1.5335186 
0.01433649832780073 1:6.812279 2:-1.228086 3:-4.891964 4:2.4866004 5:2.471047 6:-4.0129027 
0.01414222123115061 1:-4.4121056 2:-1.4439979 3:0.6553123 4:-6.9902277 5:1.8041081 6:1.2274988 
0.007902223932422639 1:-6.9944773 2:-1.307694 3:0.27456808 4:-7.6580796 5:1.5523295 6:0.6774037 
0.008839065405203229 1:-4.745015 2:0.2961893 3:0.5760834 4:-4.3268943 5:2.5249703 6:0.78313524 
0.01238789680037133 1:5.685729 2:-5.067209 3:1.86052 4:5.1683006 5:-2.1838012 6:1.1472086 
0.009645571074486214 1:9.440008 2:-6.1631436 3:-2.152756 4:7.138064 5:-2.6237888 6:-2.2928538 
0.00792425536676266 1:8.385508 2:-1.3789964 3:-3.0164678 4:4.866851 5:1.7282867 6:-2.5252526 
0.02381487485579603 1:-11.015073 2:11.411957 3:7.902069 4:-11.626984 5:11.615392 6:6.7146273 
0.02621153575617766 1:-9.747864 2:5.30184 3:0.94937134 4:-8.28782 5:4.40422 6:-0.19045615 
0.0101316145616994 1:-5.6643367 2:1.4052391 3:-5.0592537 4:-3.3634343 5:0.4060955 6:-4.9592648 
0.02330755086488623 1:6.415312 2:-8.793789 3:-8.753448 4:6.9209394 5:-7.4016194 6:-6.1199822 
0.02025479197073568 1:7.088243 2:-9.559324 3:-3.1940982 4:6.0750966 5:-6.533724 6:-0.44850636 
0.02301665237889173 1:-3.7449498 2:-2.6912904 3:-4.310648 4:-2.8078544 5:0.41956496 6:-1.3238134 
0.0329964364970838 1:-4.7998166 2:-1.5295401 3:-1.7851558 4:-3.090177 5:1.2650523 6:0.96134305 
0.005431257075940166 1:1.9700222 2:3.1293445 3:-1.0104334 4:2.5368814 5:4.8058786 6:0.5796441 
0.2562024707275218 1:1.1547823 2:-0.1650343 3:0.87961584 4:1.1622176 5:0.49835807 6:1.8517451 
1 1:1.2490463 2:0.73381186 3:-1.28783 4:1.259497 5:0.25949645 6:0.299973 
0.7876237398641455 1:4.373188 2:-1.6772599 3:0.07269649 4:3.506911 5:-1.7212603 6:1.3283997 
0.001704595173986849 1:3.5410357 2:-4.632348 3:3.8173392 4:2.139807 5:-3.7410789 6:4.058434 
0.003944539844291162 1:1.0466757 2:-5.1482763 3:2.3288476 4:-1.1819236 5:-2.601842 6:1.5649894 
0.00817014168345378 1:-9.125821 2:-1.528275 3:-2.7407517 4:-8.792365 5:1.3565238 6:-2.7088554 
0.01286159360323168 1:-8.062753 2:-2.495482 3:-1.9093785 4:-6.1834373 5:0.31145358 6:-1.5019858 
0.01712937015095178 1:-9.628726 2:-4.5571184 3:-0.4685715 4:-6.199528 5:-1.4001462 6:-0.048942983 
0.4939897134030352 1:0.6134777 2:-1.5538116 3:0.40810916 4:2.6826155 5:1.4973893 6:0.64792645 
0.01235170258722179 1:4.8294315 2:0.021175385 3:-1.9680803 4:4.287508 5:2.3074949 6:-1.9827425 
0.01571714667809099 1:4.452956 2:0.22352076 3:-5.4763274 4:3.3252745 5:0.72652745 6:-3.8176174 
0.01236711943366685 1:7.1053896 2:-5.203631 3:3.0168614 4:4.7821665 5:-3.7604995 6:3.7404573 
0.01595032011307428 1:-9.169081 2:-1.6738238 3:-3.86425 4:-9.193844 5:-0.18455398 6:-2.5125234 
0.009847918049176417 1:-7.10665 2:-0.9057393 3:-0.45253998 4:-5.70513 5:0.4668244 6:0.7193492 
0.007694485023629193 1:-6.2299333 2:-2.4730563 3:-0.43839097 4:-3.862731 5:-0.8803941 6:0.58679855 
0.0241517956756338 1:-9.92884 2:9.868362 3:3.5459895 4:-5.8160877 5:9.439449 6:3.8191316 
-1 1:-2.5405421 2:0.45304298 3:-4.0108075 4:-1.8713889 5:0.687136 6:-3.785522 
-1 1:1.3818433 2:0.08760834 3:-0.3974681 4:1.6407973 5:0.25736108 6:-0.137746 
-1 1:3.9502559 2:-1.602181 3:0.61608076 4:3.249003 5:-1.2147231 6:0.72653216 
-1 1:0.4480732 2:0.07262993 3:-0.032462597 4:-0.20254368 5:0.36807027 6:0.062391058 
-1 1:0.21635717 2:0.014481545 3:0.14275408 4:-0.34740776 5:0.24793752 6:0.19008619 
-0.1961525993809654 1:0.13452703 2:0.23485851 3:-0.28332043 4:-0.34339035 5:0.37465158 6:-0.18879065 
-1 1:-0.007316828 2:-0.0087509155 3:-0.009600639 4:-0.38818738 5:0.10483373 6:0.06794331 
-1 1:-1.0973144 2:0.31533527 3:-1.2624669 4:-1.1825479 5:0.34313595 6:-0.9479384 
-1 1:-0.27762222 2:0.8319521 3:-0.4741559 4:0.29315603 5:0.7670688 6:0.10860765 
-1 1:1.4265679 2:0.44255447 3:0.2689786 4:1.5978769 5:0.30213693 6:0.68139374 
-1 1:0.1320287 2:-0.07601547 3:0.27637768 4:0.12157335 5:-0.12701488 6:0.37916458 
-1 1:-0.951282 2:-0.15396023 3:0.2009182 4:-0.7693899 5:-0.16396771 6:0.24296409 
-1 1:-0.9869062 2:0.030472755 3:-0.4679811 4:-0.64401126 5:0.01637222 6:-0.3407482 
-1 1:-1.2572746 2:-0.17935753 3:-0.34694743 4:-0.7315038 5:-0.15476646 6:-0.17577161 
-1 1:-2.0042028 2:-0.044864178 3:-1.7384477 4:-1.5115234 5:-0.06850822 6:-1.1685455 
-1 1:1.1964254 2:0.2251215 3:-0.17192698 4:1.3512839 5:0.16118196 6:0.31838015 
-0.8302750105286405 1:-0.18660533 2:0.14975023 3:0.09006262 4:-0.02539748 5:0.06864856 6:0.4642958 
-1 1:0.46139646 2:0.023795128 3:1.7206087 4:0.49808347 5:-0.04584524 6:1.6758735 
-1 1:2.500926 2:-0.45344353 3:2.7329307 4:2.0300903 5:-0.41846713 6:2.1505566 
-1 1:-0.5591785 2:-0.04942131 3:-0.59679365 4:-0.82401127 5:-0.011555925 6:-0.94333434 
-1 1:-10.119862 2:4.714652 3:5.1719503 4:-8.307755 5:3.802014 6:3.8603277 
-1 1:-6.049074 2:0.67016506 3:4.4204707 4:-3.3895745 5:-0.19397837 6:2.4870787 
-1 1:-3.2548263 2:-0.35840988 3:2.6847258 4:-0.47626138 5:-0.97804266 6:0.60106707 
-1 1:-1.8043827 2:-0.42996407 3:1.5157466 4:0.77934587 5:-0.83967745 6:-0.45432973 
-0.3067588671349155 1:-0.85713243 2:-0.28526306 3:0.8273541 4:1.3812771 5:-0.55598116 6:-0.9141779 
-1 1:2.572586 2:-0.7514248 3:-1.4474616 4:2.5724182 5:-0.5906299 6:-1.6085377 
-1 1:0.16094041 2:-0.46773624 3:2.3360734 4:0.128618 5:-0.24555308 6:1.7399979 
-1 1:-5.984212 2:-2.7768984 3:4.8479548 4:-4.8132277 5:-2.0437722 6:3.4015036 
-1 1:0.5970782 2:-1.104702 3:5.521155 4:1.4144502 5:-0.29726064 6:3.2597628 
-0.7382933729913317 1:0.40138412 2:-0.0057430267 3:0.28950274 4:0.9750048 5:0.6413587 6:-1.5775115 
-1 1:-0.1442101 2:-0.10766506 3:-0.5321274 4:0.34352848 5:0.4315493 6:-1.9193133 
-0.2649683429537141 1:-0.20163012 2:-0.16776466 3:0.24191523 4:0.22888678 5:0.2971598 6:-0.9162165 
-1 1:-0.07362461 2:0.037504196 3:-0.6509762 4:0.19412142 5:0.27638456 6:-1.0887166 
-1 1:-0.04378146 2:0.07766935 3:-0.27252865 4:3.2551765 5:-0.2809947 6:0.00049075484 
-0.8133286010729146 1:0.028271496 2:-0.06960734 3:0.067424774 4:2.6617837 5:-0.34261712 6:0.27235535 
-1 1:0.049978524 2:-0.16707197 3:0.21548843 4:-0.033232428 5:-0.080697566 6:0.09039521 
