svm_type c_svc
kernel_type rbf
gamma 0.333333
nr_class 2
total_sv 189
rho -0.99083
label 1 -1
nr_sv 156 33
SV
0.7562653425538943 1:-6.164736 2:-0.012825012 3:5.274423 
0.5136006707872566 1:-2.0083866 2:0.22331047 3:3.0199156 
1 1:-1.6334219 2:0.20220041 3:0.7895136 
0.5334814757893641 1:1.6546693 2:-0.9324713 3:4.164174 
0.5258724835931593 1:0.28825486 2:-0.70723104 3:6.618691 
0.5515645847739822 1:-1.8123474 2:-0.8264003 3:-0.96808577 
0.1587967303627459 1:-1.9980786 2:-1.4850025 3:3.7144146 
0.001583838228017664 1:3.8603742 2:-1.1138744 3:7.8349924 
0.6214200908846205 1:-0.8979058 2:-1.3601604 3:0.39376307 
1 1:-0.77992606 2:-0.12560034 3:-1.3879876 
1 1:-1.0948045 2:0.28216267 3:-1.4087126 
0.8283875637193915 1:0.1861735 2:0.2871189 3:1.7797685 
1 1:-0.5492711 2:-0.88785505 3:0.028451443 
1 1:-1.1142809 2:0.92977095 3:-0.04672432 
1 1:-1.1429806 2:0.10278177 3:-0.54247713 
0.7432202443962337 1:1.803751 2:-0.4843645 3:-0.19407654 
1 1:-1.2795138 2:0.76528215 3:-0.081361294 
1 1:1.0873983 2:-0.77310324 3:-0.17202187 
0.03351811420293081 1:-2.1403751 2:0.16583824 3:1.2547421 
1 1:-0.02202797 2:-0.60229206 3:0.20592308 
1 1:1.0863467 2:-0.3825178 3:0.95522356 
1 1:-0.13900304 2:0.26107597 3:-0.8513427 
1 1:0.63892007 2:-0.5898776 3:-0.4119873 
1 1:0.7019424 2:1.3592939 3:0.42569685 
1 1:-0.56252915 2:0.25880194 3:1.2130718 
1 1:-0.6372881 2:-0.4210148 3:0.78509045 
0.4325418865787814 1:-1.6787038 2:-0.2215476 3:-2.1246948 
0.5028562651167744 1:0.57038313 2:-0.37345743 3:1.5380888 
0.7606241496118634 1:-0.385505 2:-0.5846658 3:1.9475875 
0.09034239237133417 1:1.9201576 2:0.5149102 3:1.7414012 
0.2180175087218842 1:0.7751616 2:-0.12800694 3:4.765374 
0.6924154937967967 1:-0.35507178 2:1.2596388 3:-1.024642 
0.02807033156545884 1:1.3622603 2:-3.4459724 3:7.2702117 
1 1:0.019484103 2:0.24496794 3:0.23869038 
0.009139361777368404 1:14.851158 2:-0.11485052 3:-3.0529122 
0.007426715819442153 1:6.654947 2:-11.266758 3:-2.2592845 
0.009272931719168109 1:-7.316866 2:-10.645546 3:1.7658765 
0.002387586232054095 1:-9.862808 2:-2.4224129 3:0.08780575 
0.01522347214992631 1:-4.572598 2:-2.2949247 3:-3.0402682 
0.008744754099208663 1:-5.666734 2:3.6771593 3:-7.122682 
0.006975730881215392 1:0.025529861 2:10.374674 3:-6.637358 
0.006783397044697851 1:-0.011191606 2:4.969297 3:-4.663848 
0.008748137618206142 1:-2.3038266 2:8.142979 3:4.0153446 
0.005443546139823507 1:-4.4099874 2:8.485318 3:-4.648486 
0.001310129037935037 1:4.1089516 2:-3.6879187 3:5.9177265 
0.009220161363382311 1:-5.538496 2:6.662875 3:2.5676394 
0.02280899108849543 1:-6.2015557 2:-1.9151707 3:1.4179059 
0.006105085515390238 1:1.1091391 2:-0.5823517 3:-5.7622375 
0.003755839668712532 1:8.145847 2:-1.373579 3:-0.17209828 
0.008405800539498076 1:2.6872149 2:10.114756 3:-7.639585 
0.008048336099420864 1:-5.3865595 2:4.16439 3:-3.8872247 
0.009225716671118853 1:7.0169287 2:-11.790173 3:8.103276 
0.003570905050767892 1:4.9006634 2:-7.151334 3:-1.7854712 
1 1:-0.25582218 2:-0.5745716 3:-0.47696117 
0.001950033932999356 1:0.68694055 2:1.8816385 3:-6.926237 
0.004612731439241735 1:1.5647812 2:4.33451 3:-4.5565963 
0.009102155152434311 1:3.3509765 2:-9.516641 3:7.351813 
0.007869073036878615 1:-4.0252857 2:7.0735393 3:-2.7552893 
0.007311193845169428 1:-8.416978 2:-8.046354 3:-4.024742 
0.001760594911357056 1:6.786072 2:-7.150859 3:-2.6940513 
0.005669141131171562 1:-0.880702 2:8.107338 3:-6.4396954 
0.004962790972451669 1:-2.030344 2:9.225407 3:-6.464797 
0.1444536342727601 1:-6.271865 2:-4.8513107 3:3.5788302 
0.006365994645081918 1:-8.314279 2:-8.268919 3:-2.159634 
0.004521438724535734 1:2.9301589 2:0.911211 3:-6.4151325 
0.00774272675175719 1:-8.668742 2:-6.734066 3:0.2201193 
0.008690478724368211 1:0.72273135 2:-7.108862 3:9.994026 
0.1552912688431574 1:1.449652 2:0.2035656 3:3.355837 
0.009142032146572472 1:7.2936516 2:3.6250887 3:2.3290858 
0.003111848280022009 1:7.2316575 2:-7.1246386 3:3.2494173 
0.003866528602222141 1:3.3961678 2:0.2569456 3:8.523326 
0.001671710450784215 1:6.947979 2:-7.8548 3:-2.099601 
0.005519565162552416 1:-5.4319534 2:-3.9783669 3:-4.4834843 
0.005612958660650813 1:5.8741493 2:-3.1352968 3:5.7455187 
0.2681673289638607 1:-1.6636286 2:-1.1135035 3:-0.15502192 
0.005989269206336089 1:3.9744344 2:4.158583 3:-4.178344 
0.006074005314194164 1:2.0529194 2:2.6186657 3:-7.5045676 
0.001259699980187053 1:6.2053995 2:-6.2441444 3:2.9213703 
0.006265910078850461 1:4.1577883 2:-7.090851 3:0.33063912 
0.005551250336904795 1:-0.3853805 2:2.7664766 3:-7.2958884 
0.003787947371456102 1:2.691299 2:6.8941913 3:-7.918186 
0.004567072554958909 1:3.1110868 2:-8.287287 3:-2.025624 
0.005069907009371536 1:2.672473 2:-7.1999397 3:-2.5624921 
0.00607951513062241 1:1.7771306 2:6.5427523 3:-6.9628096 
0.009142445826927581 1:-16.557 2:-6.368766 3:-7.5661955 
0.008133006891721695 1:4.0486565 2:5.1267037 3:-8.592226 
0.003832099795559929 1:-3.8941476 2:-4.2147913 3:-5.2891817 
0.006985094490399451 1:5.0457926 2:-1.3029613 3:7.597763 
0.2191422659310636 1:2.6258223 2:-1.812089 3:-1.9531565 
0.08993340931895637 1:1.9041114 2:0.83632946 3:3.4235375 
0.3106874749357402 1:-2.7382207 2:-1.7846498 3:1.6335262 
0.8804135970631017 1:-2.7847147 2:0.7271023 3:-4.537069 
0.008949135781536312 1:2.164763 2:-0.15027332 3:11.464053 
0.008393415989198289 1:-1.9998293 2:-5.7250624 3:-4.827471 
0.009319066227379682 1:-1.7116523 2:-8.889579 3:4.1139765 
0.007714403431049455 1:-11.981019 2:-2.75465 3:1.3988183 
0.007156150422369723 1:-4.9179864 2:8.849157 3:-6.4013705 
0.009242278718606393 1:1.4542052 2:-0.61146355 3:-9.204389 
0.009150486595721374 1:17.769627 2:-6.62001 3:-7.1707044 
0.009273071616172801 1:3.1669936 2:-4.7280216 3:-11.236223 
0.007063549437879913 1:5.9419336 2:-7.777496 3:-7.3567767 
0.007802994312141862 1:4.8011055 2:-6.1899805 3:-4.1735635 
0.003351740697220718 1:-7.591549 2:-1.6796994 3:-3.6751175 
0.008529007804863552 1:8.658951 2:1.5237446 3:-1.9219081 
0.005498393334522535 1:5.0967493 2:3.3649154 3:-3.154695 
0.004178971456201731 1:1.7560968 2:-3.2531915 3:4.124221 
0.1164175714041413 1:-3.8289986 2:-0.8349166 3:0.7800199 
0.005746839081900601 1:7.611964 2:-5.857945 3:-2.8144364 
0.04064488151817895 1:4.3106594 2:-3.1036901 3:3.3503027 
0.009273314743433941 1:-8.938578 2:-1.6242805 3:2.013742 
0.0047007520612562 1:6.989439 2:-5.8608108 3:0.14558315 
0.002671997058582689 1:10.013389 2:-5.9171357 3:-0.6865119 
0.007201251980096717 1:8.518118 2:-0.4135766 3:-6.1715393 
0.005226892922395885 1:4.670715 2:1.433177 3:-5.528679 
0.008193116979706034 1:2.4273143 2:-6.201715 3:3.6940508 
0.001691056186358068 1:-11.309372 2:-2.0741048 3:0.61256206 
0.002630551356309939 1:2.9335995 2:-5.928926 3:0.71743035 
0.006804575836458826 1:9.193134 2:-7.4790235 3:0.84064496 
0.002852087025486374 1:6.6593766 2:1.2646337 3:-4.070898 
0.6948648118096723 1:2.3256764 2:0.17338753 3:-1.0083921 
0.008080758028450388 1:3.8014698 2:-0.73101664 3:-2.7689416 
0.001622601842302055 1:-9.757096 2:-1.77918 3:0.26945043 
0.0009059946046087515 1:8.260317 2:-5.970565 3:0.21676993 
0.0008987116515224312 1:8.681742 2:-0.8523483 3:-5.0022783 
0.005838844926807938 1:6.8740525 2:2.3554533 3:-5.081729 
0.02448989261903577 1:3.3828506 2:-0.8134084 3:-3.4518347 
0.1478496100533475 1:3.718955 2:-0.79263306 3:-1.7147679 
0.007248030144119171 1:10.884279 2:-4.4253535 3:-1.0441797 
0.00108082681405052 1:6.249162 2:-3.965302 3:1.8436824 
0.004613286567969333 1:6.9561796 2:-7.7741785 3:-0.33012176 
0.006122260583046082 1:6.7421803 2:-8.26632 3:2.492581 
0.09444340951021457 1:2.603128 2:-2.8894658 3:1.5649005 
0.004903672438400901 1:-6.9631248 2:-0.8073611 3:-1.3512759 
0.005769415564859104 1:6.812279 2:-1.228086 3:-4.891964 
0.01390147681507306 1:-4.745015 2:0.2961893 3:0.5760834 
0.001498141712002465 1:5.685729 2:-5.067209 3:1.86052 
0.004511891136950713 1:9.440008 2:-6.1631436 3:-2.152756 
0.007228584002670025 1:8.385508 2:-1.3789964 3:-3.0164678 
0.009249682281204819 1:-11.015073 2:11.411957 3:7.902069 
0.01164593838012462 1:-9.747864 2:5.30184 3:0.94937134 
0.04121831978137366 1:-1.9757043 2:-1.7053988 3:-5.1173944 
0.006736287611556523 1:6.415312 2:-8.793789 3:-8.753448 
0.006212076612832918 1:7.088243 2:-9.559324 3:-3.1940982 
0.004844713688801894 1:0.60364246 2:-5.307458 3:-2.744071 
1 1:1.1547823 2:-0.1650343 3:0.87961584 
1 1:1.2490463 2:0.73381186 3:-1.28783 
0.8334499909645949 1:4.373188 2:-1.6772599 3:0.07269649 
0.0009238651471984993 1:3.27911 2:-3.8259501 3:1.7157295 
0.005229309988678877 1:0.08284092 2:-5.6121335 3:-1.3340489 
0.000686985916910438 1:-9.125821 2:-1.528275 3:-2.7407517 
0.005218870008319406 1:-8.062753 2:-2.495482 3:-1.9093785 
0.007091590167107698 1:-9.628726 2:-4.5571184 3:-0.4685715 
0.4560126093251978 1:0.39578724 2:1.5125756 3:-0.7635304 
0.005680986517417894 1:7.1053896 2:-5.203631 3:3.0168614 
0.006808944743509911 1:-9.169081 2:-1.6738238 3:-3.86425 
0.00918778964643574 1:-9.92884 2:9.868362 3:3.5459895 
-1 1:-2.5405421 2:0.45304298 3:-4.0108075 
-1 1:1.3818433 2:0.08760834 3:-0.3974681 
-1 1:0.48082662 2:0.26012516 3:-0.42153406 
-1 1:3.9502559 2:-1.602181 3:0.61608076 
-1 1:-1.0973144 2:0.31533527 3:-1.2624669 
-1 1:-0.26238108 2:-0.34250164 3:-0.5665035 
-1 1:-0.27762222 2:0.8319521 3:-0.4741559 
-1 1:1.4265679 2:0.44255447 3:0.2689786 
-1 1:0.1320287 2:-0.07601547 3:0.27637768 
-1 1:-0.951282 2:-0.15396023 3:0.2009182 
-1 1:-0.9869062 2:0.030472755 3:-0.4679811 
-1 1:-1.2572746 2:-0.17935753 3:-0.34694743 
-1 1:-2.0042028 2:-0.044864178 3:-1.7384477 
-1 1:1.1964254 2:0.2251215 3:-0.17192698 
-1 1:0.46139646 2:0.023795128 3:1.7206087 
-1 1:2.500926 2:-0.45344353 3:2.7329307 
-1 1:-0.5591785 2:-0.04942131 3:-0.59679365 
-1 1:-10.119862 2:4.714652 3:5.1719503 
-1 1:-6.049074 2:0.67016506 3:4.4204707 
-1 1:-3.2548263 2:-0.35840988 3:2.6847258 
-1 1:-1.8043827 2:-0.42996407 3:1.5157466 
-1 1:-0.85713243 2:-0.28526306 3:0.8273541 
-1 1:-0.39296198 2:-0.21272182 3:0.67521685 
-1 1:-0.2900312 2:-0.15348053 3:0.398952 
-1 1:2.572586 2:-0.7514248 3:-1.4474616 
-1 1:0.16094041 2:-0.46773624 3:2.3360734 
-1 1:-5.984212 2:-2.7768984 3:4.8479548 
-1 1:0.5970782 2:-1.104702 3:5.521155 
-1 1:0.40138412 2:-0.0057430267 3:0.28950274 
-0.5186858526896493 1:-0.1442101 2:-0.10766506 3:-0.5321274 
-0.6325468483525922 1:-0.20163012 2:-0.16776466 3:0.24191523 
-1 1:-0.07362461 2:0.037504196 3:-0.6509762 
-1 1:0.049978524 2:-0.16707197 3:0.21548843 
